svm_type c_svc
kernel_type rbf
gamma 0.0142857
nr_class 2
total_sv 43
rho -0.297276
label 1 2
nr_sv 21 22
SV
1.048400706426745 1:0.567147 2:0.461299 3:0.207573 5:0.045623 6:0.582026 7:0.685224 8:0.299233 9:0.342483 10:0.890578 11:0.472794 12:0.244684 13:0.128149 14:0.883514 15:0.40082 18:0.194649 19:1 20:0.611391 22:0.964515 23:0.438986 25:0.114124 26:0.524103 27:0.0567098 28:0.256959 29:0.936217 30:0.0412032 31:0.480436 32:0.613997 33:0.637394 34:0.252451 36:0.547107 37:0.521997 39:0.281546 40:0.379814 41:0.0722345 42:0.534122 43:0.250288 44:0.14506 45:0.601969 46:0.345943 47:0.140238 48:0.696157 49:0.905926 50:0.658178 51:0.625463 52:0.280324 53:0.620567 54:0.321077 55:0.313401 57:0.614022 58:0.54831 60:0.295798 61:0.0663096 62:0.155189 63:0.164785 65:0.514865 66:0.302309 67:0.303712 68:0.155431 69:0.276947 
2.541304299668314 1:0.696664 2:0.167796 3:0.516865 4:0.0834446 5:0.16601 6:0.668873 7:0.393732 8:0.233236 9:0.558421 10:0.243456 11:0.615831 12:0.205316 13:0.140866 14:0.483488 15:0.153689 18:0.335488 19:0.280916 20:0.194604 21:0.12969 22:0.692706 23:0.644609 25:0.153021 26:0.627865 27:0.0651714 28:0.196822 29:0.711441 30:0.0315976 31:0.643312 32:0.539472 33:0.244169 34:0.725232 35:0.521152 36:0.733436 37:0.494999 38:0.312049 39:0.605172 40:0.49472 41:0.295796 42:0.0682439 43:0.287633 44:0.138907 45:0.17287 46:0.264981 47:0.345555 48:0.177894 49:0.347037 50:0.180088 51:0.33285 52:0.357118 53:0.120759 54:0.246225 55:0.400214 57:0.302478 58:0.594631 59:0.0942211 60:0.679867 62:0.11901 63:0.189385 64:0.0570429 65:0.673814 66:0.289488 67:0.265931 68:0.0959501 69:0.127321 70:0.238201 
3.510471851626998 1:0.76012 2:0.570905 3:0.207891 4:0.654094 6:0.631472 7:0.0857843 8:0.137812 9:0.586865 10:0.537547 11:0.189427 12:0.183291 13:0.396799 14:0.126419 17:0.980981 18:0.14621 19:0.46733 20:0.61259 21:0.677849 22:0.301873 23:0.256468 25:1 26:0.435497 27:0.0993944 28:0.321691 29:0.378064 31:0.527052 32:0.439508 33:0.638436 34:0.442466 36:0.410959 37:0.40335 39:0.47313 40:0.228261 41:0.180863 42:0.089172 43:0.501279 45:0.0753614 47:0.0284143 48:0.348672 49:0.635185 50:0.329618 51:0.160945 52:0.2979 53:0.299183 54:0.160867 55:0.470902 56:0.239024 57:0.305324 58:0.803115 59:0.123116 60:0.370314 61:0.13289 62:0.311012 63:0.412805 64:0.670824 65:0.429668 66:0.151386 67:0.173828 68:0.219528 69:0.693444 
6 1:0.709216 2:0.385341 3:0.167374 4:0.0585225 5:0.294323 6:0.44328 7:0.506478 8:0.119693 9:0.634796 10:0.654056 11:0.762637 12:0.472405 13:0.434161 14:0.407121 15:0.215574 17:0.175509 18:0.41854 19:0.465967 20:0.547002 21:0.181913 22:0.388862 23:0.865336 26:0.735871 27:0.228665 28:0.414391 29:0.882912 30:0.110802 31:0.395254 32:0.980891 33:0.616808 34:0.135707 36:0.588202 37:0.441571 39:0.474484 40:0.245031 41:0.196792 42:0.191447 43:0.235452 45:0.161796 46:0.0929821 47:0.398258 48:0.499051 49:0.38963 50:0.353834 51:0.458513 52:0.390552 53:0.265252 55:0.393166 57:0.787032 58:0.429708 60:0.238513 61:0.0356634 62:0.166931 64:0.160024 65:0.415198 66:0.203136 67:0.489867 68:0.242931 69:0.476506 
6 1:0.558504 2:0.478956 3:0.357128 5:0.215853 6:0.511141 7:0.368435 8:0.0779659 9:0.565055 10:0.638092 11:0.325408 12:0.459241 13:0.427772 14:0.271414 17:0.842509 18:0.167496 19:0.602167 20:0.345324 21:0.509424 22:0.311114 23:0.503514 25:0.147247 26:0.769607 27:0.0487989 28:0.884191 29:0.697568 30:0.141852 31:0.469157 32:0.415502 33:0.16456 34:0.217234 36:0.235393 37:0.672603 39:0.573509 40:0.228727 41:0.196792 42:0.382894 43:0.322995 44:0.155956 45:0.129499 46:0.44635 47:0.880614 48:0.399431 49:0.701481 50:0.202191 51:0.579722 52:0.258486 53:0.207641 54:0.414642 55:0.35953 57:0.454296 58:0.491826 59:0.528643 60:0.381651 61:0.31392 62:0.467471 63:0.212805 64:0.19212 65:0.38753 66:0.0975516 67:0.205312 68:0.14724 69:0.381227 
4.537566351756007 1:0.751477 2:0.0323154 3:0.381947 4:0.0571874 5:0.14391 6:0.458993 7:0.0900735 8:0.14912 9:0.661995 10:0.320951 11:0.497149 12:0.198734 13:0.390775 15:0.210656 18:0.0511239 19:0.24535 20:0.406954 21:0.0888812 22:0.443691 23:0.615373 25:0.23997 26:0.577467 27:0.10435 28:0.2026 29:0.557141 30:0.0433519 31:0.385987 32:0.219993 33:0.268143 34:0.199045 35:0.102085 36:0.143836 37:0.387412 38:0.285675 39:0.964993 40:0.199689 41:0.248562 42:0.374522 43:0.296074 44:0.0762731 45:0.474623 47:0.623281 48:0.24407 49:0.190556 50:0.395445 51:0.596086 52:0.611802 53:0.0333279 54:0.168746 55:0.164762 57:0.548023 58:0.739782 60:0.388755 61:0.0697674 63:0.346757 65:0.383452 66:0.0794779 67:0.136845 68:0.402587 69:0.786288 
6 1:0.169128 2:0.103276 3:0.589627 5:0.142557 6:0.771507 7:0.437938 8:0.572676 9:0.950908 10:0.725226 11:0.322316 12:0.0843038 13:0.262079 14:0.788829 18:0.221106 19:0.643865 20:0.190048 21:0.0961439 22:0.34241 23:0.45723 26:0.52707 27:0.193283 28:0.437894 29:0.29006 30:0.0468487 31:0.575073 32:0.377523 33:0.144886 34:0.645382 36:0.155438 37:0.382695 38:0.154359 39:0.380847 40:0.0863354 41:0.148562 42:0.809281 44:0.288414 45:0.171024 46:0.196571 47:0.043538 48:0.131879 49:0.720556 51:0.473977 52:0.561985 53:0.220687 54:0.72981 57:0.609172 58:1 60:0.58812 61:0.150722 62:0.088226 65:0.755591 66:0.128833 67:0.36974 68:0.479165 69:0.125849 
6 1:0.262248 2:0.0537479 3:0.821171 4:0.0452826 5:0.0759995 6:0.686792 7:0.24965 8:0.476855 9:0.612654 10:0.517431 11:0.551368 12:0.0794937 13:0.212304 14:0.262771 15:0.166803 16:0.695392 17:0.407741 18:0.0810623 19:0.333174 20:0.132134 21:0.0703787 22:0.301257 23:0.578884 25:0.0475274 26:0.520086 27:0.118085 28:0.267463 29:0.44348 30:0.0171469 31:0.415333 32:0.594172 33:0.106189 34:0.0525026 36:0.398658 37:0.382451 38:0.112993 39:0.755975 40:0.284705 41:0.189381 42:0.148317 43:0.573283 44:0.0301683 45:0.313288 46:0.288139 47:0.382906 48:0.773245 49:0.452778 50:0.15664 51:0.204884 52:0.566152 53:0.110947 54:0.133618 55:0.304538 56:0.397561 57:0.390195 58:0.730613 59:0.102261 60:0.369559 61:0.0828531 62:0.129324 63:0.411963 65:0.786197 67:0.289122 68:0.192355 69:0.230695 
6 1:0.763551 2:0.359467 3:0.168647 4:0.442256 5:0.630073 6:0.0591122 7:0.556635 8:0.436649 9:0.200514 10:0.559645 11:0.153668 12:0.275696 13:0.276926 14:0.102554 15:0.32582 17:0.530531 19:0.32493 20:0.0761391 21:0.137472 22:0.195909 23:0.178331 24:0.71724 25:0.0463611 26:0.124897 27:0.898374 29:0.544867 30:0.535853 31:0.125527 32:0.482384 33:0.310749 36:1 37:0.531837 39:0.171553 40:0.431988 41:0.403761 42:0.578708 43:0.3558 44:0.648136 46:0.702669 47:0.462649 48:0.188567 49:0.588889 50:0.229195 51:0.450906 52:0.140115 53:0.194814 54:0.260998 55:0.254672 56:0.387805 57:0.626779 58:0.55711 60:0.120163 61:0.161706 62:0.378451 63:0.133951 64:0.120931 65:0.662238 67:0.0352534 68:0.624456 69:0.495018 
6 1:0.62222 2:0.479733 3:0.429253 4:0.0562973 5:0.153305 6:0.564156 7:0.177083 8:0.379249 9:0.733809 10:0.27325 11:0.733256 12:0.257342 13:0.29013 14:0.0652735 17:0.168836 18:0.100656 19:0.344621 20:0.214748 21:0.437316 22:0.747905 23:0.907731 25:0.117973 26:0.497626 27:0.0732852 28:0.464942 29:0.429215 30:0.106547 31:0.355471 32:0.214857 33:0.39544 34:0.0652735 36:0.141459 37:0.420184 38:0.280955 39:1 40:0.353416 41:0.635509 42:0.276069 43:0.3558 45:0.311135 46:0.447057 47:0.495646 48:0.240038 49:0.468333 50:0.0486258 51:0.327895 52:0.277939 53:0.365072 54:0.16612 55:0.161986 57:0.588614 58:0.338832 60:0.305774 61:0.0686148 62:0.882894 64:0.0769699 65:0.554459 66:0.11717 67:0.157022 68:0.361308 69:0.22911 
6 1:0.351112 2:0.242532 4:0.73142 5:0.86847 6:0.0362109 7:0.511555 8:0.394062 9:0.179119 10:0.245323 11:0.0705519 12:0.243038 13:0.112206 14:0.565402 17:0.487487 18:0.290631 19:0.646999 20:0.228058 21:0.884143 22:0.540044 23:0.546209 25:0.12777 26:0.143522 27:0.635023 28:0.287684 29:0.271356 30:0.492374 31:0.0450716 33:0.856547 34:0.376935 36:0.102041 37:0.360657 38:0.202665 39:0.510485 40:0.113432 41:0.448894 42:0.531756 43:0.607239 45:0.112273 46:0.129044 47:0.0834097 48:0.346537 49:0.135185 50:0.2808 51:0.316535 52:0.471576 53:0.897879 55:0.0779498 56:0.356098 57:0.0967844 58:0.326129 59:0.367085 60:0.551995 62:0.231831 63:0.122999 64:1 67:0.615449 68:0.328349 69:0.124038 
6 1:0.724939 2:0.199001 3:0.0894145 4:0.187583 5:0.74694 7:0.369048 8:0.412842 9:0.146612 10:0.318322 11:0.488934 12:0.620253 13:0.249118 14:0.217492 16:0.719283 17:0.281281 18:0.0838472 19:0.689378 20:0.396763 21:0.874805 22:0.519468 23:0.630477 26:0.0204054 27:0.732997 29:0.176106 30:0.568377 31:0.13456 32:0.214977 33:0.439479 34:0.435114 36:0.235672 37:0.708222 38:0.234037 39:0.646258 40:0.327329 41:0.0573009 42:0.153412 43:0.593107 44:1 47:0.302475 48:1 49:0.312222 50:0.405151 51:0.201431 52:0.119914 53:0.254235 55:0.450187 57:0.23321 58:0.649532 60:0.254837 61:0.228693 62:0.936528 63:0.142039 64:0.256465 65:0.295756 66:0.195412 67:0.261718 68:0.449132 69:0.0477242 
6 1:0.734668 2:0.438534 3:0.124311 4:0.065198 5:0.122905 6:0.551739 7:0.358981 8:0.104682 9:0.714072 10:0.620338 11:0.283077 12:0.318101 13:0.424668 14:0.151187 15:0.240164 16:1 17:0.195529 18:0.174756 19:0.399128 20:0.843765 21:0.405153 22:0.360892 23:0.394198 25:0.649114 26:0.718981 27:0.0509143 28:0.692227 29:0.525836 31:0.333146 32:0.612445 33:0.45798 34:0.302245 36:0.0819122 37:0.218915 39:0.413395 40:0.318401 41:0.482522 42:0.213285 43:0.636846 45:0.0901261 46:0.621354 47:0.587305 48:0.277989 49:0.542407 50:0.281472 51:0.340056 52:0.538317 53:0.42652 54:0.192383 55:0.187613 57:0.221086 58:0.65292 60:0.265568 61:0.119127 62:0.2788 63:0.493513 64:0.178278 65:0.462378 66:0.316753 67:0.20784 68:0.396087 69:0.530627 
6 1:0.340254 2:0.200222 3:0.377387 4:0.113151 5:0.0829467 6:0.535381 7:0.667367 8:0.44875 9:0.590099 10:0.56616 11:0.417512 12:0.452152 13:0.322989 14:0.360552 15:0.416803 17:0.339339 18:0.151681 19:0.467466 20:0.39964 21:0.0439218 22:0.532282 23:0.494018 25:0.0593072 26:0.581485 27:0.0515518 28:0.233587 29:0.531712 30:0.0214021 31:0.737901 32:0.580557 33:0.231792 34:0.360552 35:0.0504469 36:0.923539 37:0.44336 38:0.564409 39:0.813666 40:0.394643 41:0.104646 42:0.416197 43:0.341284 44:0.094211 45:0.859889 46:0.0449001 47:0.207379 48:0.0602467 49:0.564815 50:0.341918 51:0.61075 52:0.397646 53:0.36699 54:0.083388 55:0.43417 56:0.371707 57:0.753295 58:0.251565 59:0.0638191 60:0.422461 61:0.120618 62:0.282291 63:0.428138 64:0.193337 65:0.557134 66:0.157025 67:0.405703 68:0.132289 69:0.215806 
6 1:0.424383 2:0.0284287 3:0.245969 4:0.0368269 5:0.123604 6:0.607728 7:0.261029 8:0.195807 9:0.761091 10:0.605403 11:0.288199 12:0.544304 13:0.394061 14:0.76935 15:0.407377 16:0.282423 17:0.221221 18:0.230654 19:0.338625 20:0.86283 21:0.171883 22:0.244948 23:0.470764 25:0.0386634 26:0.760248 27:0.124808 28:0.435005 29:0.553778 30:0.0279323 31:0.721099 32:0.546041 33:0.172638 34:0.598426 36:0.833659 37:0.370416 38:0.275958 39:0.52361 40:0.25722 41:0.220575 42:0.42202 43:0.402609 44:0.0491439 45:0.152876 46:0.292911 47:0.447525 48:0.235769 49:0.429444 50:0.318374 51:0.82264 52:0.539033 53:0.558132 54:0.217663 55:0.42456 56:0.161463 57:0.696995 58:0.596767 60:0.450726 61:0.0449522 62:0.052523 63:0.11171 64:0.0503499 65:0.479435 66:0.127983 67:0.205711 68:0.159462 69:0.356431 
6 1:0.273019 2:0.477179 3:0.600764 5:0.161394 6:0.623913 7:0.330532 8:0.410395 9:0.458662 10:0.58742 11:0.182468 12:0.0325316 13:0.426129 14:0.24355 15:0.257787 17:0.420087 18:0.187786 19:0.514547 20:0.620264 21:0.108767 22:0.465254 23:0.47054 26:0.518032 27:0.182358 28:0.330488 29:0.352407 30:0.0530418 31:0.330151 32:0.739639 33:0.573941 34:0.24355 35:1 36:0.263908 37:0.601935 39:0.666704 40:0.439752 41:0.242478 43:0.241463 44:0.139945 45:0.677484 46:0.11119 47:0.348763 49:0.116481 50:0.665289 51:0.576919 52:0.197566 53:0.425369 55:0.134437 57:0.717659 58:0.657191 60:0.570738 62:0.0998096 64:0.09568 65:0.496711 66:0.388893 67:0.697663 68:0.14646 69:0.0712749 70:1 
6 1:0.524931 2:0.352804 3:0.242257 5:0.144516 6:0.638833 7:0.371236 8:0.364105 9:0.532051 10:0.244561 11:0.472987 12:0.451392 13:0.187781 14:0.210397 15:0.133607 17:0.217885 18:0.0973742 19:0.511276 20:0.455156 21:0.282034 22:0.321587 23:0.707492 25:0.247317 26:0.509404 27:0.0756324 28:0.42844 29:0.744867 30:0.0412454 31:0.724937 32:0.497313 33:0.722606 34:0.378741 35:0.0647468 36:0.4104 37:0.256892 38:0.181288 39:0.498356 40:0.354658 41:0.288827 42:0.237489 43:0.45901 44:0.0241643 45:0.100431 46:0.403748 47:0.738543 48:0.154886 49:0.302037 50:0.438978 51:0.26654 52:0.389757 53:0.352519 54:0.107026 55:0.452856 57:0.339062 58:0.452684 60:0.295949 61:0.132755 62:0.362425 63:0.329907 64:0.29784 65:0.386258 66:0.403182 67:0.15915 68:0.303972 69:0.203182 
6 1:0.641895 2:0.067518 3:0.428299 5:0.235319 6:0.683843 7:0.353466 9:0.160046 10:0.541357 11:0.260172 12:0.724937 13:0.29944 14:0.0868163 17:0.224558 18:0.133877 19:0.183416 20:0.516427 21:0.232751 22:0.165845 23:0.251608 26:0.680727 27:0.0585065 28:0.5302 29:0.696981 30:0.0283536 31:0.480623 32:0.0735698 34:0.0868163 36:0.658513 37:0.70627 38:0.373681 39:0.530517 40:0.731444 41:0.261836 42:0.4899 43:0.473334 45:0.517533 46:0.356903 47:0.0703483 49:0.623148 50:0.0646742 51:0.772745 52:0.510466 53:0.124486 54:0.441891 55:0.574907 57:0.92388 58:0.174939 60:0.203446 61:0.136891 62:0.213583 63:0.22679 65:0.678681 67:0.0895304 68:0.119743 69:0.876245 
5.725370666305876 1:0.639767 2:0.260744 3:0.272804 5:0.131903 6:0.917962 8:0.523277 9:0.747326 10:0.124967 11:0.596598 12:0.068481 13:0.202994 14:0.13274 18:0.0511239 19:0.42059 20:0.653717 21:0.355871 22:0.63381 23:1 24:0.0714187 25:0.0899813 26:0.201726 28:0.33771 29:0.741831 30:0.15171 31:0.169288 32:0.0970978 33:0.536156 34:0.0663055 37:0.554688 38:0.142699 39:0.89393 40:0.0798913 41:0.134735 42:0.0935396 43:0.625016 44:0.152546 45:0.0790526 46:0.181899 47:0.387718 48:0.365987 49:0.285741 50:0.29656 51:0.261435 52:0.202704 53:0.343474 55:0.439402 57:0.38524 58:0.0958097 60:0.311064 61:0.31392 62:0.408124 63:0.173378 65:0.473647 66:0.278134 67:0.136845 68:0.23539 69:0.174706 
6 1:0.571838 2:0.476069 3:0.426389 4:0.0559635 5:0.152302 6:0.647657 7:0.0440301 8:0.376207 9:0.603533 10:0.384844 11:0.631391 12:0.509241 13:0.22636 14:0.0648865 17:0.335335 18:0.14999 19:0.308169 20:0.332494 21:0.260764 22:0.371488 23:0.638777 24:0.0697529 26:0.379302 27:0.131067 28:0.461922 29:0.458038 30:0.105873 31:0.447065 32:0.39293 33:0.523779 34:0.19453 36:0.210791 37:0.375783 38:0.139645 39:0.708452 40:0.351165 41:0.242035 42:0.0915378 43:0.546297 44:0.186272 46:0.444228 47:0.49198 48:0.238378 49:0.46537 50:0.0965789 51:0.0974377 52:0.165198 53:0.41764 55:0.107314 56:0.245366 57:0.636373 58:0.478349 59:0.378894 60:0.227932 61:0.034104 65:0.528808 67:0.200568 68:0.325684 69:0.768116 
2.74946585035756 1:0.982323 2:0.140589 3:0.159419 5:0.116797 6:0.608447 7:0.26313 8:0.176035 9:0.684634 10:0.535718 11:0.532618 13:0.560667 14:0.581656 15:0.410656 16:0.854949 18:0.149493 19:0.170675 20:0.751319 21:0.0866332 22:0.555569 23:0.337147 24:0.0347723 25:0.0584325 26:0.332238 27:0.174215 28:0.723608 29:0.603297 31:0.609801 32:0.571002 33:0.195831 34:0.258514 36:0.840369 37:0.211352 38:0.417268 39:0.938248 40:0.233385 41:0.019469 42:0.182348 43:0.672784 44:0.0371359 45:0.385266 46:0.442814 47:0.719753 48:0.356499 49:0.278333 50:0.192581 51:0.296817 52:0.376634 53:0.196623 55:0.427977 56:0.48878 57:0.686663 58:0.0312615 60:0.454353 61:0.0339684 62:0.158997 63:0.168829 64:0.152419 65:0.439358 66:0.193481 67:0.133298 68:0.389521 69:0.340353 
-6 1:0.793607 2:0.118823 3:0.255622 4:0.100579 5:0.126425 6:0.70196 7:0.237395 8:0.289578 9:0.661415 10:0.357641 11:0.436745 12:0.635949 13:0.568334 14:0.349845 15:0.370492 17:0.201201 18:0.0899145 19:0.431083 20:0.548801 21:0.31264 22:0.44554 23:0.473082 24:0.146377 25:0.316247 26:0.617365 27:0.0523921 28:0.237395 29:0.428072 30:0.0888524 31:0.780492 32:0.236713 33:0.392573 34:0.155444 36:0.715963 37:0.669432 38:0.167407 39:0.440776 40:0.350854 41:0.397345 42:0.109736 43:0.327535 44:0.0670076 45:0.139034 46:0.532614 47:0.399404 48:0.714658 49:0.66963 50:0.31847 51:0.539486 52:0.21546 53:0.389793 54:0.197965 55:0.0965296 57:0.551081 58:0.322005 60:0.182134 61:0.245169 62:0.478102 63:0.0507161 64:0.091725 65:0.343506 66:0.32579 67:0.160348 68:0.331925 69:0.255831 
-6 1:0.826442 2:0.356358 3:0.119644 4:0.533267 5:0.394358 6:0.0838476 7:0.39487 8:0.414363 9:0.287503 10:0.8356 11:0.0817628 12:0.23 13:0.730559 14:0.181889 15:0.231148 17:0.282282 18:0.19624 19:0.480207 20:0.229616 22:0.0694924 23:0.210782 25:0.0493352 26:0.200858 27:0.718943 28:0.0370273 29:0.29685 30:0.66515 31:0.0558832 32:0.51893 33:0.661238 34:0.109133 36:0.27579 37:0.710742 38:0.0782898 39:0.612798 40:0.306444 41:0.275885 42:0.307916 43:0.648996 44:0.0209028 45:0.0433713 46:0.348771 47:0.30385 48:0.401328 49:0.36537 50:0.4064 51:0.329997 52:0.388198 53:0.177822 55:0.150561 56:0.137561 57:0.353506 58:0.519589 61:0.11472 62:0.402571 63:0.142544 64:0.257378 65:0.321407 66:0.0217811 67:0.18753 68:0.047585 69:0.35111 
-4.827681613903011 1:0.195318 2:0.394448 3:0.037972 4:0.358033 5:0.941835 6:0.0177213 7:0.5007 8:0.241965 9:0.173978 10:0.262582 11:0.207306 12:0.823544 13:0.325119 14:0.322884 16:0.305461 17:0.238572 18:0.17784 19:0.389725 20:0.433213 21:0.0619056 22:0.660793 23:0.401002 24:0.347376 25:0.396139 26:0.12298 27:0.279724 28:0.234769 29:0.0633915 30:0.361518 31:0.0269119 32:0.168996 33:0.139805 34:0.322884 35:0.142006 36:0.749651 37:0.350573 38:0.893393 39:0.50565 40:0.888276 41:0.399115 42:0.520473 43:0.388669 44:0.530057 45:0.05506 46:0.568853 47:0.162007 48:0.0849146 49:0.264815 50:0.0687104 51:0.303423 52:0.0750278 53:0.721647 54:0.352265 55:0.152696 57:0.16563 58:0.272553 59:0.0899497 61:0.193911 63:0.0603201 64:0.163219 65:0.282163 66:0.220901 67:0.412221 68:0.389066 69:0.283345 70:0.511362 
-6 1:0.353197 2:0.175902 3:0.386933 4:0.110703 5:0.0927847 6:0.81384 7:0.0580357 8:0.196138 9:0.844432 10:0.454566 11:0.641055 12:0.167089 13:1 14:0.128354 15:0.679508 17:0.55322 18:0.263875 19:0.519793 20:0.386691 21:0.974927 22:0.408699 23:0.644833 25:0.0580243 26:0.473386 27:0.0384537 28:0.348346 29:0.554529 30:0.0978261 31:0.426893 32:0.190135 33:0.172899 34:0.171182 36:0.417249 37:0.397902 38:0.184064 39:0.442765 40:0.334783 41:0.294248 42:0.301729 43:0.212112 44:0.024609 45:0.30606 46:0.703553 47:0.904216 48:0.550759 49:0.798519 50:0.159331 51:0.740817 52:0.461492 53:0.613276 54:0.435653 55:0.141698 57:0.418134 58:0.488401 59:1 62:1 63:0.27936 64:0.151354 65:0.450846 66:0.230555 67:0.102967 68:0.224404 69:0.112659 
-6 1:0.406532 2:0.156691 3:0.740878 4:0.0597463 5:0.150321 6:0.679233 7:0.0470063 8:0.12419 9:0.738867 10:0.406866 11:0.623176 12:0.349241 13:0.805525 14:0.277219 18:0.160334 19:0.585815 20:0.563309 21:0.929103 22:0.39724 23:0.40175 25:0.0940051 26:0.532137 27:0.140137 28:0.14115 29:0.625167 30:0.0679137 31:0.706028 32:0.297862 33:0.56013 34:0.0692724 36:0.450657 37:0.453444 39:0.330699 40:0.667547 41:0.439602 42:0.0977252 43:0.37799 44:0.119487 45:0.247924 46:0.569913 47:0.531852 48:0.892078 50:0.206515 51:0.421129 52:0.345093 53:0.3893 55:0.114789 57:0.581866 58:0.0837322 59:0.134925 61:0.182182 62:0.341003 63:0.181129 65:0.659739 66:0.207538 67:0.262117 68:0.180459 69:0.0912591 
-6 1:0.337126 2:0.279622 3:0.296033 4:0.0517356 5:0.0975871 6:0.691675 7:0.122111 8:0.126306 9:0.862509 10:0.569627 11:0.404562 12:0.108608 13:0.399416 14:0.53999 17:0.31031 18:0.0462502 19:0.633781 20:0.403597 21:0.241224 22:0.458477 23:0.591222 24:0.0968212 26:0.601662 27:0.107827 28:0.366465 29:0.425624 30:0.039181 31:0.520921 32:0.801624 33:0.484821 34:0.119969 35:0.184707 36:0.650126 37:0.377165 38:0.25819 39:0.443539 40:0.613898 41:0.169801 42:0.33849 43:0.327152 44:0.413683 46:0.164398 47:0.555683 48:0.772296 49:0.172222 50:0.223525 51:0.463217 52:0.405917 53:0.461328 57:0.426252 58:0.251049 61:0.0945827 62:0.221358 63:0.156698 65:0.815794 66:0.0359157 67:0.536251 68:0.112657 69:0.13168 70:0.369617 
-6 1:0.575877 2:0.338257 3:0.150509 4:1 5:0.595501 6:0.0703398 7:0.662553 8:0.786867 9:0.172154 10:0.76344 11:0.137141 12:0.172532 13:0.264147 14:0.305083 16:0.403584 17:0.315649 18:0.329322 19:0.322273 20:0.357314 21:0.163583 22:0.641079 23:0.106101 25:0.1655 26:0.13777 27:0.67168 28:0.372637 29:0.466852 30:0.737361 31:0.198072 32:0.534217 33:0.184886 34:0.244066 36:0.132234 37:0.500935 39:0.561738 40:0.293789 41:0.225664 42:0.0860783 43:0.484013 45:0.145494 46:0.418066 47:1 48:0.224383 49:0.613148 50:0.227273 51:0.831398 52:0.483792 53:0.0547059 54:0.155286 55:0.35355 56:0.230732 57:0.536848 58:0.689815 59:0.118844 60:0.142987 61:0.0641399 62:0.0750555 64:0.1439 65:0.601508 66:0.109601 67:0.104873 68:0.269973 69:0.348109 
-5.24904606694019 1:0.327354 2:0.275736 3:0.0931269 4:0.521251 5:0.430073 6:0.0943565 7:0.384454 8:0.801746 9:0.543909 10:0.173848 11:0.311298 12:0.280886 13:0.335463 15:0.720082 16:0.999147 17:0.29296 18:0.174756 19:0.458881 20:0.316787 21:0.253156 22:0.324667 23:0.416031 24:0.0812743 25:0.358584 26:0.0637268 27:0.653395 28:0.153755 29:0.171993 30:0.678505 31:0.195966 32:0.437358 33:0.381498 34:0.0377967 35:0.756107 36:0.450238 37:0.790274 38:0.162687 39:0.437212 40:0.61382 41:0.352765 42:0.373066 43:0.262182 44:0.0217182 45:0.0450631 46:0.207 47:0.453025 48:0.138994 49:0.759259 50:0.197002 51:0.545041 52:0.0627644 53:0.233733 54:0.48063 55:0.156327 56:1 57:0.437006 58:0.82495 59:0.0736181 60:0.0442866 61:0.258119 62:0.0929864 63:0.246672 64:0.222695 65:0.552135 66:0.180969 67:0.0519267 68:0.700514 69:0.182348 
-1.661348027120161 1:0.368746 2:0.291505 3:0.118901 4:0.291055 5:0.566266 6:0.111136 7:0.163515 8:0.92415 9:0.246704 11:0.361167 12:0.298861 13:0.54941 14:0.144608 15:0.153279 19:0.509232 20:1 21:0.904721 23:0.391207 24:0.337174 25:0.32686 26:0.0287136 27:0.541453 28:0.29438 29:0.196442 30:0.440807 31:0.0466629 32:0.0466977 33:0.194788 34:0.0963622 35:0.371003 36:0.36567 37:0.462796 38:0.311216 39:0.765203 40:0.638276 41:0.253429 42:0.135942 43:0.286737 44:0.0553702 45:0.114888 46:0.0661128 47:0.515582 48:0.177182 49:0.83037 50:0.0717855 51:0.256131 52:0.513329 53:0.202269 54:0.490808 57:0.5767 58:0.589955 60:0.169438 61:0.557394 62:0.53364 64:0.113629 65:0.426028 66:0.144281 67:0.0165846 68:0.654034 69:0.021173 
-6 1:0.582653 2:0.0747363 3:0.50891 4:0.0313752 5:0.1316 6:0.61561 7:0.148197 8:0.19098 9:0.70918 10:0.567951 11:0.545569 12:0.337595 13:0.439576 14:0.327657 15:0.231148 16:0.240614 17:0.37671 18:0.392978 19:0.673094 20:0.534652 21:0.341691 22:0.625924 23:0.548677 24:0.274223 25:0.0493935 26:0.613439 27:0.122693 28:0.481749 29:0.39876 30:0.0832491 31:0.478658 32:0.688164 33:0.441303 34:0.546182 36:0.355046 37:0.298528 38:0.313437 39:0.450999 40:0.591693 41:0.213827 42:0.308098 43:0.379013 44:0.125491 45:0.173639 46:0.0498497 47:0.498167 48:0.133776 49:0.313519 50:0.352585 51:0.288309 52:0.425752 53:0.178041 54:0.185161 55:0.0301121 56:0.137561 57:0.621929 58:0.261433 59:0.212814 62:0.268645 63:0.190227 64:0.0428963 65:0.445541 66:0.174403 67:0.312891 68:0.194565 69:0.143795 
-2.59129158455662 1:0.403709 2:0.37668 3:0.0337293 4:0.742212 5:0.614664 6:0.0787419 7:0.250263 8:0.66724 9:0.279293 10:0.147407 11:0.46052 12:0.677342 13:0.46988 14:0.122936 15:0.130328 16:0.271331 17:0.211879 18:0.0947881 19:0.454521 20:0.932854 21:0.329587 22:0.782775 23:0.403769 24:0.17636 25:0.407569 26:0.16096 27:0.653569 28:0.208508 29:0.419716 30:0.468402 31:0.140223 32:0.0266332 33:0.248339 34:0.450722 36:0.488398 37:0.737904 38:0.35286 39:0.429227 40:0.468634 41:0.139712 42:0.578162 43:0.345313 45:0.244233 46:0.0562135 47:0.498396 48:0.602704 49:1 50:0.244186 51:0.251476 52:0.401686 53:0.0988324 54:0.625739 55:0.101762 57:0.425092 58:0.637565 60:0.144045 61:0.430741 62:0.302444 63:0.535299 64:0.193337 65:0.417872 66:0.0490461 67:0.0986209 68:0.293376 69:0.0539515 70:0.20197 
-6 2:0.127818 3:0.400827 4:0.10514 5:0.0770952 6:0.737577 7:0.165354 8:0.129679 9:0.837715 10:0.708043 11:0.273896 12:0.112278 13:0.206158 17:0.315315 18:0.234931 19:0.386182 20:0.243285 21:0.326647 22:0.23275 23:0.600419 25:0.0275251 26:0.353145 27:0.0821235 28:0.434217 29:0.435091 30:0.0596983 31:0.485163 32:0.420518 33:0.861629 34:0.365583 35:0.0937438 36:0.396142 37:0.269578 39:0.715967 40:0.36677 41:0.173009 42:0.0858963 43:0.241655 44:0.140019 46:0.250486 47:0.0242896 48:0.111954 49:0.175 50:0.408514 51:0.404264 52:1 53:0.158198 54:0.310243 55:0.151308 57:0.0377438 58:0.16566 61:0.128076 62:0.449699 63:0.0795282 65:0.3521 66:0.0364563 67:0.670303 68:0.361568 69:0.294158 
-1.833333615773224 1:0.418129 2:0.369461 4:0.487094 5:0.561324 6:0.116242 7:0.219013 8:0.531345 9:0.351688 10:0.403627 11:0.332464 12:0.466835 13:0.403736 14:0.121001 15:0.384426 16:0.267065 17:0.938939 18:0.0311319 19:0.575254 20:0.165108 21:0.432647 22:0.577871 23:0.303948 24:0.195308 25:0.565314 26:0.200402 27:0.788345 28:0.287421 29:0.257222 30:0.487445 31:0.0937939 32:0.211633 33:0.73342 34:0.282379 36:0.437098 37:0.724567 39:0.180311 40:0.485559 41:0.171571 42:0.227662 43:0.29991 44:0.0232007 45:0.048139 46:0.0553297 47:0.7044 48:0.148245 49:0.521111 50:0.360561 51:0.47753 52:0.0801972 53:0.388313 54:0.513132 55:0.166898 57:0.579968 58:0.624015 59:0.157035 61:0.339209 62:0.198508 63:0.105307 64:0.285367 65:0.562177 66:0.217348 67:0.0415946 68:0.653124 69:0.159307 
-6 1:0.487535 3:0.391493 4:0.123164 5:0.0860473 6:0.924059 7:0.0969013 8:0.350417 9:0.824529 10:0.43323 11:0.85619 12:0.433924 13:0.563831 14:0.0952012 15:0.15123 17:0.246246 18:0.146907 19:0.301833 20:0.67542 21:0.191423 22:0.454781 23:0.717661 24:0.0256108 25:0.107651 26:0.566922 27:0.074879 28:0.0969013 29:0.565399 30:0.0777722 31:0.494992 32:0.706437 33:0.336678 34:1 36:0.258037 37:0.455802 39:0.476998 40:0.544565 41:0.209071 42:0.671702 43:0.306881 44:0.164184 46:0.652466 47:0.592805 48:0.350332 49:0.273519 50:0.177398 51:0.563357 52:0.265007 53:0.442307 54:0.121142 55:0.0788041 57:0.45029 58:0.176854 60:0.0557739 61:0.0500373 62:0.175659 63:0.0621735 64:0.168391 65:0.712181 66:0.0855024 67:0.163673 68:0.308912 69:0.146286 
-2.844278981764368 1:0.634164 2:0.659856 4:0.371607 5:0.669635 6:0.0165564 7:0.877101 8:0.485253 9:0.213782 10:0.0776089 11:0.322799 12:0.54962 13:0.296459 14:0.344685 17:0.445779 18:0.132882 19:0.227567 20:0.110552 21:0.115511 22:0.329226 23:0.299686 25:0.194775 26:0.00442801 27:0.658147 28:0.0877101 29:0.298025 30:0.450286 31:0.16428 32:0.152156 33:0.522215 34:0.172343 36:0.280123 37:0.265675 39:0.832122 40:0.674224 41:0.407412 42:0.121565 43:0.384448 46:0.236168 47:0.681485 49:0.247407 50:0.256775 51:0.397107 52:0.541323 53:0.269857 54:0.438608 55:0.213988 56:0.325854 58:0.338722 59:0.167839 60:0.100967 62:0.105998 63:0.337658 64:0.101612 65:0.322196 66:0.257975 67:0.17773 68:0.291816 
-6 1:0.372264 2:0.03809 3:0.343975 4:0.641522 5:0.806504 6:0.0982477 8:0.125446 9:0.594245 10:0.431211 11:0.661738 12:0.374937 13:0.569733 14:0.139448 15:0.147541 17:0.12012 18:0.250945 19:0.540165 20:0.222302 21:0.249179 22:0.577255 23:0.538881 25:0.0209937 26:0.420478 27:0.0939755 28:0.189207 29:0.547609 30:0.121461 31:0.634466 32:0.644452 33:0.0469055 34:0.185888 36:0.402991 37:0.530129 39:0.68784 40:0.615528 41:0.243142 42:0.459145 43:0.345632 44:0.053443 45:0.49877 47:0.576764 48:0.085389 49:0.533889 50:0.138478 51:0.272195 52:0.41659 53:0.213945 54:0.118188 55:0.11543 57:0.472536 58:0.255836 60:0.108978 61:0.0732931 62:0.228658 63:0.18214 64:0.109674 65:0.426642 66:0.1113 67:0.0958716 68:0.275824 69:0.30599 
-6 1:0.472681 2:0.216213 3:0.528956 4:0.0427236 5:0.0536426 6:0.608447 7:0.134279 8:0.418331 9:0.986483 10:0.532137 11:0.296608 12:0.552911 13:0.660217 14:0.0495356 17:0.128128 18:0.228864 19:0.365879 20:0.847962 22:0.425333 23:0.0860625 25:0.0223933 26:0.713914 27:0.222319 28:0.251838 29:0.732365 30:0.0484917 31:1 32:0.187627 33:0.299805 34:0.24742 36:0.375315 37:0.571684 38:0.212937 39:0.518443 40:0.744565 41:0.515708 42:0.418744 43:0.343394 44:0.0568527 46:0.0678805 47:0.619386 48:0.273008 49:0.284074 50:0.294926 51:0.232559 52:0.744473 53:0.313326 54:0.377873 56:0.187317 57:0.637955 58:0.306245 61:0.0520035 62:0.365122 63:0.129233 64:0.0584119 65:0.454135 67:0.255155 68:0.200221 69:0.173743 
-6 1:0.384729 2:0.230761 3:0.0597157 4:0.501335 5:0.669635 6:0.111681 7:0.838148 8:0.693162 9:0.146944 10:0.58761 11:0.353822 12:0.265316 13:0.40404 14:0.326883 15:0.115574 16:0.240614 17:0.0940941 18:0.111995 19:0.34537 20:0.566787 21:0.194709 22:0.312223 23:0.484298 25:0.180662 26:0.020588 27:0.644672 28:0.332721 29:0.250367 30:0.557634 31:0.13484 32:0.417294 33:0.366906 34:0.326883 36:0.393626 37:0.572416 38:0.0782898 39:0.533031 40:0.393556 41:0.18208 42:0.102457 43:0.39615 44:0.104366 45:0.519686 46:0.0498497 47:0.238772 48:0.133539 49:0.312963 50:0.324717 51:0.582925 52:0.45373 53:0.177602 54:0.462246 55:0.300694 56:0.274634 57:0.501318 58:0.590507 59:0.0708543 60:0.0426239 61:0.0763442 62:0.268169 63:0.284751 64:0.257073 65:0.419846 66:0.130532 67:0.137377 68:0.340376 69:0.127548 
-1.105599836083925 1:0.186979 2:0.172571 4:0.546506 5:1 6:0.0243389 7:0.48722 8:0.235815 9:0.154076 10:0.233779 11:0.31642 12:0.370506 13:0.447852 14:0.168989 15:0.268443 16:0.27901 17:0.327661 18:0.130296 19:0.580023 20:0.3006 21:0.283071 22:0.847215 23:0.661059 24:0.0909217 25:0.0381969 26:0.0331416 27:0.464951 28:0.0429359 30:0.317282 31:0.114621 32:0.186552 33:0.170684 34:0.211171 36:0.411937 37:0.151663 38:1 39:0.531318 40:0.482997 41:0.253872 42:0.357598 43:0.397813 44:0.388333 45:0.604276 46:0.347357 47:0.291247 48:0.155361 49:0.242593 50:0.0314242 51:0.301371 52:0.12941 53:1 54:0.967498 55:0.1748 56:0.159512 57:0.410121 58:0.108145 61:0.110991 62:0.363694 63:0.275821 64:0.498023 65:0.574323 66:0.379393 67:0.43559 68:0.582136 69:0.0926744 70:0.0519625 
-6 1:0.768025 2:0.144808 3:0.402206 4:0.097352 5:0.0816179 6:0.571195 7:0.204307 8:0.20037 9:0.856041 10:0.639121 11:0.394704 12:0.316329 13:0.724291 14:0.338622 15:0.238934 17:0.291959 18:0.26109 19:0.556517 21:0.151306 22:0.395392 23:0.458053 24:0.0202665 26:0.702502 27:0.126807 28:0.229779 29:0.322997 30:0.0860297 31:0.440887 32:0.783829 33:0.304104 34:0.301084 36:0.570869 37:0.502236 38:0.0810661 39:0.656978 40:0.747438 41:0.383518 42:0.318471 43:0.391738 44:0.0216441 45:0.314057 46:0.618879 47:0.31714 48:0.138283 49:0.648333 50:0.280319 51:0.410419 52:0.559583 53:0.13682 55:0.0622531 57:0.373115 58:0.227373 59:0.586432 62:0.0463345 63:0.344061 64:0.1331 65:0.434886 66:0.11269 67:0.245798 68:0.223363 69:0.1982 
-6 1:0.234581 2:0.0714048 3:0.732499 4:0.0768803 5:0.0804989 6:0.753141 7:0.453431 8:0.207843 9:0.738618 10:0.482608 11:0.634097 12:0.222785 13:0.478338 14:0.311791 15:0.283197 17:0.115115 18:0.446489 19:0.470532 20:0.16283 21:0.597095 22:0.297807 23:0.852026 25:0.0402962 26:0.227152 27:0.0600423 28:0.362658 29:0.562233 30:0.16001 31:0.429233 32:0.160277 33:0.449902 34:0.267286 36:0.868745 37:0.334716 38:0.191838 39:0.488078 40:0.750699 41:0.155088 42:0.251319 43:0.816984 44:0.0255726 45:0.796678 46:0.244122 47:0.390926 48:0.40963 49:0.447593 50:0.265424 51:0.178961 52:0.628933 53:0.147289 55:0.147464 56:0.168293 57:0.698893 58:0.0522498 59:0.346985 62:0.109648 63:0.116428 65:0.454223 66:0.0533714 67:0.15312 68:0.305012 69:0.566916 
-6 1:0.719336 2:0.214325 3:0.141493 5:0.108824 6:1 7:0.116772 8:0.506348 9:0.489842 10:0.547148 11:0.290036 12:0.337468 13:0.681271 14:0.172085 18:0.0994629 19:0.408939 20:0.269904 21:0.0575826 22:0.164367 23:0.398908 25:0.155587 26:0.658861 27:0.0869628 28:0.262736 29:0.504031 30:0.126432 31:0.632173 32:0.549982 33:0.521303 34:0.430083 36:0.233016 37:0.265024 39:0.303733 40:0.465994 41:0.259181 42:0.121383 43:0.469114 44:0.197761 45:0.102584 47:0.221815 48:0.237192 49:0.494074 50:0.416587 51:0.212391 52:0.299968 53:0.360741 54:0.218976 55:0.213668 57:0.175435 58:0.250608 59:0.0836683 61:0.0452234 63:0.280876 64:0.10146 65:0.570201 66:0.231791 67:0.443572 68:0.13944 69:0.113281 
